[
    {
        "weights": [
            [
                -0.5452814833681054,
                -0.39657234091852167,
                0.4524942110088994,
                0.7527490429103472,
                -1.505006967822795,
                3.812109491622281,
                -4.266354959485245,
                -0.5704963674258678,
                1.5443193661004053
            ],
            [
                2.342721410477438,
                2.2137524669318864,
                3.5310271597445664,
                -1.8553138090070371,
                -2.7956888815436276,
                2.5003112563748293,
                0.34700257956411584,
                1.4464579267188662,
                -3.358744205805111
            ],
            [
                -1.5891053300514102,
                -0.5649142098847082,
                5.853368039855555,
                -1.0338024088718825,
                -0.15524834285303973,
                -1.7749047762203014,
                -0.41695479012905634,
                1.543096720122196,
                -0.696859495304948
            ],
            [
                1.9709291431106626,
                -4.783978349754159,
                -3.1024832283385653,
                5.436570557100874,
                -12.272215750321875,
                11.930395698652937,
                -3.5068946689764733,
                -6.509096302694822,
                0.37209263757527417
            ],
            [
                -6.382776242020338,
                -0.2997832395204764,
                -3.547760191220935,
                1.515482068725824,
                -3.6086106314962705,
                1.9715553020687802,
                1.3133382965701539,
                3.665516565580196,
                -0.36262976256661905
            ],
            [
                -1.4047433331437311,
                1.443352604274992,
                0.49025580384564654,
                -1.2594456953164954,
                -2.1538564014233685,
                -0.8915312489762359,
                -0.9638898156586713,
                3.6150308012589263,
                -0.3932445711586032
            ],
            [
                0.9949748262576084,
                0.847889281454771,
                1.951980066800342,
                -1.340456954538819,
                1.808017945294888,
                0.20538619458278196,
                -1.3981143943561867,
                0.2770584040553358,
                -1.180150885580081
            ],
            [
                -7.129033940685224,
                -2.2764280665795416,
                1.517321883136141,
                4.549337691342369,
                0.9822853300167735,
                -0.4900806658631559,
                1.780656367227308,
                0.1865577465929109,
                1.8077053059808925
            ],
            [
                2.5886825416697907,
                -0.6804162012466312,
                -1.7377926522085891,
                1.879465044970051,
                -3.6222077762133913,
                0.7321842189059752,
                -1.4003595063189562,
                0.643650857927111,
                3.5012666727868695
            ],
            [
                -6.728749051804414,
                7.502611048356206,
                6.206540313400209,
                -1.4174797379879054,
                -4.7623299744157315,
                2.3473561583608067,
                -3.0115165426534607,
                4.130365753719019,
                -6.203841277201484
            ],
            [
                -8.085788097513458,
                -2.4469308097977485,
                2.0860879563105983,
                2.9865186913672006,
                -6.949574469176787,
                5.508669963285564,
                1.4101050561492114,
                5.162246807309552,
                -4.318017548393897
            ],
            [
                0.2848253939916864,
                5.352117971336317,
                6.22854132113404,
                -7.088650503337069,
                1.1384115081296593,
                1.9285661459236423,
                -2.237388610464699,
                -0.5070989912761927,
                -2.3059039486269315
            ],
            [
                -3.792963047226811,
                -2.0933341008026827,
                0.6542610463855972,
                -2.1326553218242448,
                0.9339779199352064,
                -0.36003093033696726,
                1.6173631487464695,
                -0.03378708685292191,
                5.443077594261539
            ],
            [
                3.08368898265689,
                -3.1675325109513714,
                -6.3458127069242165,
                3.235467652130655,
                0.5473942099248141,
                0.3921052182588788,
                0.24857793709669526,
                0.514252016099664,
                0.3007565300596711
            ],
            [
                6.598126833414233,
                -7.836461913385373,
                5.315448997439727,
                -9.139691901932526,
                -0.48278535146430146,
                8.941037933694712,
                -2.451261710383707,
                3.657233966641331,
                4.261783596443446
            ],
            [
                -2.2954544063811615,
                -2.0612499962274025,
                -0.8757180247485463,
                1.7916442475077097,
                -2.4794487427474,
                -2.003938239068466,
                -2.9810780497573193,
                -0.14179636916495605,
                6.046314794180449
            ],
            [
                -4.518846416740458,
                1.6826441880366265,
                -0.33004587415593306,
                3.3678055696980933,
                1.5190666569886397,
                1.5551114665901713,
                0.952102876287754,
                -4.166034633476273,
                -3.8795467440116616
            ],
            [
                -3.11229898733969,
                5.73062246696799,
                3.4939724716245824,
                0.7922313742191968,
                -0.4645110246393478,
                2.9701309834121017,
                -3.726593522356619,
                0.4622652387169454,
                -9.076348883498929
            ]
        ],
        "bias": [
            [
                1.3118733046167137
            ],
            [
                3.2595670699136567
            ],
            [
                -0.4186244106247067
            ],
            [
                -4.302964978438909
            ],
            [
                -4.118406457581073
            ],
            [
                -0.09345270863936542
            ],
            [
                6.394351438505099
            ],
            [
                1.59267998634995
            ],
            [
                -1.3877282740932957
            ],
            [
                2.95964036142288
            ],
            [
                3.198875610001857
            ],
            [
                3.5537132212658626
            ],
            [
                -0.859919157400447
            ],
            [
                -0.2524399449768689
            ],
            [
                7.548844565163227
            ],
            [
                -0.6406488393050792
            ],
            [
                0.4427225320447013
            ],
            [
                2.9222994856218305
            ]
        ],
        "inputSize": 9,
        "outputSize": 18,
        "weightShape": [
            18,
            9
        ],
        "biasShape": [
            18,
            1
        ]
    },
    {
        "weights": [
            [
                0.4267170212000861,
                1.1407699478140025,
                2.525870532794177,
                -2.2445492416904,
                -1.6755342337528258,
                2.7556964351501456,
                -2.5169549377610965,
                -0.2975596075976516,
                -0.08105365582067572,
                2.817964927227489,
                0.1859758591847328,
                1.3918412466569956,
                -0.9724289393592944,
                -4.830159131661995,
                1.9732575270290547,
                0.965787838278216,
                -1.4312827329559084,
                2.9149360540234475
            ],
            [
                -1.383992653855453,
                3.619663578669391,
                1.457143597219364,
                3.6803359849444197,
                -4.495959142694404,
                0.4900184062637096,
                -2.242928490390954,
                -4.789661291500038,
                2.4540162768236184,
                1.6338761217884776,
                1.5445518271863399,
                -0.8180674062176186,
                -0.49465111259604533,
                1.5007887743399726,
                1.316016391248251,
                0.41142326845344784,
                -3.1390248084308454,
                0.24984934452669538
            ],
            [
                1.3977068918803273,
                3.174217393935232,
                2.5204700437399445,
                2.7955516635912274,
                -2.7696060471020925,
                2.993791482737762,
                -1.3197314152472734,
                0.9363070843175232,
                -0.5367693207570415,
                0.8595204734830767,
                -3.5962896387592727,
                1.9235426997351435,
                -2.805876422771324,
                -2.5443660006044846,
                3.27319694401365,
                0.9321236481484569,
                -1.4742502701960716,
                -1.8077951561374876
            ],
            [
                1.8233753891261677,
                -6.059647377963501,
                1.1149680044537942,
                0.6245977310755562,
                1.4913325147345668,
                0.670871644937527,
                -4.200536251988452,
                -1.1517279186823899,
                3.273820469316564,
                -5.00638709544314,
                2.5574715672898063,
                -6.69706994195975,
                3.6023029468653065,
                2.016447069136559,
                -0.3919566740097759,
                4.425205726317177,
                -2.487259011288859,
                -2.5980687379774787
            ],
            [
                4.143780440244158,
                -1.6206665555190796,
                -4.587264889005195,
                4.339849916199324,
                6.201819710627324,
                -0.5701698533667632,
                -1.7471546781194816,
                1.6069892449823695,
                -1.398009663646202,
                -0.3342978701910899,
                4.03501802646795,
                -1.316182269024825,
                -3.9215190322728617,
                3.294191947579149,
                -2.8275966905896466,
                1.0631582481776203,
                7.9069394729138045,
                0.5836377310823437
            ],
            [
                1.7144320762439116,
                -3.773944130851656,
                -1.6007218506803549,
                0.2500064633906916,
                4.369129834861484,
                3.5998390523884423,
                -0.7380107988355628,
                0.4559592343095459,
                3.288514119050068,
                -2.7023920454742267,
                1.7060964606864395,
                -3.9234667193534007,
                0.47628858954536674,
                3.421063239399212,
                -2.139920457474404,
                1.8880718974003734,
                -2.210462508922542,
                -1.636201573672703
            ],
            [
                -2.154797938192697,
                1.2980258232602018,
                -2.6065433576956054,
                -2.141924495140472,
                2.2276289818970305,
                0.16604383551850121,
                1.2506356440181718,
                -0.4338008586141342,
                -2.8028128621870296,
                -0.19583950159956992,
                -1.4857810839401056,
                2.4092983017832736,
                -2.130528243321935,
                -2.350100762106799,
                1.687324829971573,
                -5.263981373545556,
                1.7971189124581297,
                0.6690918536609289
            ],
            [
                -4.703732851692459,
                3.1532476835957812,
                -4.093595439359885,
                -0.5384650432351549,
                4.27181034491523,
                -0.6502578228378758,
                -0.6913215543733925,
                0.5739224119013149,
                -3.9779743119759594,
                -0.3450199364588277,
                -2.029510716727439,
                -0.9407986939344779,
                -3.311817485061289,
                0.6675072220543438,
                -0.8615838309053694,
                -2.239974558635894,
                4.0284759598193745,
                4.37886517872541
            ],
            [
                -2.39754918051475,
                4.818062343027537,
                -0.6684413390360391,
                -1.2165223321576817,
                -1.997509873157182,
                0.905753021053614,
                -2.5357647211342274,
                -1.160834926825576,
                -2.9747936368820267,
                2.9915955029885617,
                3.8880191123027634,
                2.972123352943331,
                -1.2025860342119958,
                -1.811650805517776,
                -1.9519862311648004,
                -0.6370424932337088,
                2.9113930947462103,
                5.069010102114
            ]
        ],
        "bias": [
            [
                -0.5274999065175431
            ],
            [
                -2.577211420067617
            ],
            [
                -1.513976506426217
            ],
            [
                -2.536213179668989
            ],
            [
                2.537824925714782
            ],
            [
                0.15541535206590085
            ],
            [
                1.4430612816572965
            ],
            [
                5.116579477075351
            ],
            [
                -2.5232720541984253
            ]
        ],
        "inputSize": 18,
        "outputSize": 9,
        "weightShape": [
            9,
            18
        ],
        "biasShape": [
            9,
            1
        ]
    },
    {
        "weights": [
            [
                1.2289228639765,
                -1.7277804803888765,
                -5.545313218108802,
                -3.66299923915669,
                -1.9990171239470165,
                -1.6644723814197746,
                -0.08468597991840397,
                -1.418202478278081,
                -0.9822922246618802
            ],
            [
                6.102054860558531,
                3.486575124424516,
                2.894239642774393,
                -4.449229846551791,
                -1.8983061216443766,
                -1.0631837380755342,
                -0.07398808142497304,
                1.5041871567093694,
                1.178041630985888
            ],
            [
                2.506631384680463,
                2.595891833757493,
                1.7510980045091866,
                2.675652374608871,
                -4.480420535323094,
                -3.6520710892250476,
                -1.2617155770578359,
                -2.557259210188493,
                2.562013200003484
            ],
            [
                1.0505263687794661,
                -1.4702730497649836,
                0.13727564090378058,
                2.8068689953702384,
                -2.1889719294160135,
                1.6969151881971367,
                0.3419975513348555,
                -5.243204365210849,
                -2.060002897036068
            ],
            [
                -0.9294585043628522,
                0.45980513526410366,
                1.4823579645382932,
                2.719382872446589,
                0.84395301610635,
                0.4842995314811037,
                2.150925146705097,
                -7.049879565473397,
                -0.6346108993981846
            ],
            [
                -4.809410611768599,
                -0.7211070377642731,
                -1.740839005873195,
                3.007780678217919,
                4.398765981868405,
                1.1913900479305857,
                -2.4122270538244828,
                1.2503003700542505,
                1.40952653498828
            ],
            [
                -1.4184054877424603,
                5.652626188004055,
                2.818088687467491,
                -2.3416067812622163,
                1.0559194716900038,
                1.2630588038991244,
                1.805246695109133,
                3.7886917740850183,
                -0.5004452888376071
            ],
            [
                0.847287091176157,
                -3.964381563656501,
                -1.489387359381507,
                -2.8348599544321487,
                -2.5211201235587755,
                0.7639723297708525,
                2.765008917549941,
                0.1817613465945082,
                -3.2485647311301347
            ],
            [
                5.863201896566195,
                -2.0485160745223996,
                0.36117202525334746,
                -0.27905337241986444,
                -0.5240210683637173,
                -1.2261724703769767,
                0.050887624269860494,
                -2.1459396472206596,
                2.9865638753408734
            ]
        ],
        "bias": [
            [
                -0.2986615139801116
            ],
            [
                -1.8692042870631331
            ],
            [
                -0.6878257970936639
            ],
            [
                -2.28186035367631
            ],
            [
                -3.065397302510817
            ],
            [
                -0.49467700679384163
            ],
            [
                -5.3512481012139
            ],
            [
                3.0189394899893984
            ],
            [
                -0.04853299746657486
            ]
        ],
        "inputSize": 9,
        "outputSize": 9,
        "weightShape": [
            9,
            9
        ],
        "biasShape": [
            9,
            1
        ]
    },
    {
        "weights": [
            [
                2.0146661117633977,
                -1.713076074361409,
                -3.5667391772807675,
                0.8756097486122316,
                -4.7572960099590205,
                -4.255386093646862,
                -5.268432642032632,
                -6.548890858894257,
                3.5116472788814566
            ],
            [
                2.1891034416444035,
                -3.9834110982388196,
                -0.2937646032346419,
                -0.3828675900320283,
                -3.283401206522924,
                0.2650813681068529,
                -1.7719203966645725,
                2.531720191666876,
                2.8373557714360746
            ],
            [
                -1.7548250990146645,
                -5.278703568683639,
                -1.0399406535859401,
                2.4640783918928553,
                2.502541847350065,
                -0.10196120871726948,
                0.5539230230898688,
                4.483861336522536,
                -3.2032454787894857
            ],
            [
                5.018422452747914,
                4.58425585789993,
                1.669764802438874,
                -2.1639876374236544,
                5.4761654298938325,
                -2.2993003903053295,
                -6.481249458779546,
                -3.55483836990796,
                -1.6266489132333513
            ]
        ],
        "bias": [
            [
                0.1190437318058318
            ],
            [
                4.308126397068515
            ],
            [
                1.3542465012005016
            ],
            [
                -1.5680754282550011
            ]
        ],
        "inputSize": 9,
        "outputSize": 4,
        "weightShape": [
            4,
            9
        ],
        "biasShape": [
            4,
            1
        ]
    },
    {
        "weights": [
            [
                -0.7392059895939584,
                1.1749250520426395,
                0.35489528499327483,
                1.0202239273409017
            ]
        ],
        "bias": [
            [
                -1.129879791126389
            ]
        ],
        "inputSize": 4,
        "outputSize": 1,
        "weightShape": [
            1,
            4
        ],
        "biasShape": [
            1,
            1
        ]
    }
]